\data\
ngram 1=85
ngram 2=168
ngram 3=227

\1-grams:
-1.9294189	</s>	0.0
-1.9294189	<s>	0.0
-1.9294189	à	0.0
-1.9294189	cə́tɔ̀	0.0
-1.9294189	cə́tɔ̌	0.0
-1.9294189	fɔ̀	0.0
-1.9294189	fɔ̌	0.0
-1.9294189	fə́	0.0
-1.9294189	fə́k	0.0
-1.9294189	gháptzə́	0.0
-1.9294189	ghwɔ́'	0.0
-1.9294189	hɔ́'	0.0
-1.9294189	kundyə̂	0.0
-1.9294189	kwé	0.0
-1.9294189	lá'	0.0
-1.9294189	lá'sə́	0.0
-1.9294189	lá'zə́	0.0
-1.9294189	lɔ́'zə́	0.0
-1.9294189	má'zə́	0.0
-1.9294189	mbí	0.0
-1.9294189	mbyɛ̂	0.0
-1.9294189	mbə́	0.0
-1.9294189	mbɛ̀	0.0
-1.9294189	mbɛ́	0.0
-1.9294189	mcwɔ̀k	0.0
-1.9294189	miə́ghə̀	0.0
-1.9294189	mə́	0.0
-1.9294189	mə́nté	0.0
-1.9294189	mə̂	0.0
-1.9294189	mɛ̂	0.0
-1.9294189	nà'	0.0
-1.9294189	ná'	0.0
-1.9294189	nák	0.0
-1.9294189	ndúpzə́	0.0
-1.9294189	ndyɔ́k	0.0
-1.9294189	ndzə́	0.0
-1.9294189	ndîzə̀	0.0
-1.9294189	ndîzə́	0.0
-1.9294189	ndɔ́'ɔ́	0.0
-1.9294189	ndə̀p	0.0
-1.9294189	njɔ́kwɨ́p	0.0
-1.9294189	nòpnà'	0.0
-1.9294189	nópnà'	0.0
-1.9294189	nsó	0.0
-1.9294189	nzí	0.0
-1.9294189	nzísə̀	0.0
-1.9294189	nzísə́	0.0
-1.9294189	nzízə́	0.0
-1.9294189	nɔ̂nɔ̀	0.0
-1.9294189	nɔ̂nɔ́	0.0
-1.9294189	phú	0.0
-1.9294189	pú'	0.0
-1.9294189	pwɔ̀k	0.0
-1.9294189	pɔ̀	0.0
-1.9294189	pɔ́	0.0
-1.9294189	pɔ́njwí	0.0
-1.9294189	pɔ̌	0.0
-1.9294189	sak	0.0
-1.9294189	sák	0.0
-1.9294189	shí	0.0
-1.9294189	shíí	0.0
-1.9294189	só	0.0
-1.9294189	tá'	0.0
-1.9294189	tákə̀	0.0
-1.9294189	wete	0.0
-1.9294189	wǔp	0.0
-1.9294189	yà'	0.0
-1.9294189	yá'	0.0
-1.9294189	yɔ̌	0.0
-1.9294189	zhúə́só	0.0
-1.9294189	zhɨ́	0.0
-1.9294189	zí	0.0
-1.9294189	zə́	0.0
-1.9294189	zɛ́	0.0
-1.9294189	â	0.0
-1.9294189	ŋá'	0.0
-1.9294189	ŋáŋú	0.0
-1.9294189	ŋgápzə́	0.0
-1.9294189	ŋkwé	0.0
-1.9294189	ŋkwɔ̀'	0.0
-1.9294189	ŋkwɨ́	0.0
-1.9294189	ŋkətú'	0.0
-1.9294189	ŋkə̀tú'	0.0
-1.9294189	ŋkɛ́	0.0
-1.9294189	ŋwə́	0.0

\2-grams:
-0.00459	</s> <s>	-1.9731279
-0.3499062	<s> <s>	-0.9625546
-1.6937948	<s> cə́tɔ̌	-0.9625546
-1.9681441	<s> fɔ̀	-0.9625546
-1.6937948	<s> fɔ̌	-0.9625546
-1.9681441	<s> mbə́	-0.9625546
-1.9681441	<s> mə̂	-0.9625546
-2.2202776	<s> mɛ̂	-0.9625546
-1.6937948	<s> nópnà'	-0.9625546
-1.9681441	<s> nɔ̂nɔ̀	-0.9625546
-1.9681441	<s> nɔ̂nɔ́	-0.9625546
-1.9681441	<s> phú	-0.9625546
-1.6937948	<s> pɔ̀	-0.9625546
-1.6937948	<s> pɔ́	-0.9625546
-1.6937948	<s> pɔ́njwí	-0.9625546
-1.9681441	<s> pɔ̌	-0.9625546
-1.9681441	<s> tá'	-0.9625546
-1.9681441	<s> wete	-0.9625546
-1.9681441	<s> wǔp	-0.9625546
-0.9048127	<s> zhɨ́	-0.9625546
-1.9681441	<s> ŋáŋú	-0.9625546
-1.9681441	<s> ŋkətú'	-0.9625546
-1.9681441	<s> ŋkə̀tú'	-0.9625546
-1.0869753	<s> ŋwə́	-0.9625546
-0.4720417	à </s>	-0.4771213
-0.4720417	à ŋkwé	-0.4771213
-0.1735441	cə́tɔ̀ </s>	-0.4771213
-0.0956346	cə́tɔ̌ shí	-0.69897
-0.6888697	fɔ̀ </s>	-0.39794
-0.6888697	fɔ̀ à	-0.39794
-0.9800289	fɔ̀ ndîzə́	-0.39794
-0.9800289	fɔ̀ nzísə́	-0.39794
-0.8300343	fɔ̌ mə́	-0.3679768
-0.8300343	fɔ̌ nzísə́	-0.3679768
-0.5364709	fɔ̌ shí	-0.3679768
-0.1735441	fə́ mə́	-0.4771213
-0.1735441	fə́k sák	-0.4771213
-0.1735441	gháptzə́ ŋwə́	-0.4771213
-0.1735441	ghwɔ́' zhúə́só	-0.4771213
-0.1735441	hɔ́' lá'	-0.4771213
-0.1735441	kundyə̂ zɛ́	-0.4771213
-0.9218217	kwé </s>	-0.7533277
-0.2289188	kwé mbɛ̀	-0.7533277
-0.9218217	kwé ŋwə́	-0.7533277
-0.4720417	lá' </s>	-0.4771213
-0.4720417	lá' pɔ́	-0.4771213
-0.2959505	lá'sə́ mbɛ̀	-0.30103
-0.0781606	lá'zə́ mbɛ̀	-0.7781513
-0.2959505	lɔ́'zə́ ŋwə́	-0.30103
-0.1735441	má'zə́ ŋkɛ́	-0.4771213
-0.1735441	mbí fɔ̀	-0.4771213
-0.3928605	mbyɛ̂ fɔ̀	-0.39794
-0.6888697	mbyɛ̂ mcwɔ̀k	-0.39794
-0.4720417	mbə́ pɔ̌	-0.4771213
-0.4720417	mbə́ tákə̀	-0.4771213
-0.0114438	mbɛ̀ </s>	-1.5797836
-0.3928605	mbɛ́ lá'	-0.39794
-0.6888697	mbɛ́ mcwɔ̀k	-0.39794
-0.1735441	mcwɔ̀k </s>	-0.4771213
-0.1735441	miə́ghə̀ </s>	-0.4771213
-1.3683175	mə́ ndîzə́	-0.6197888
-1.0818463	mə́ nsó	-0.6197888
-1.0818463	mə́ só	-0.6197888
-0.6147092	mə́ yá'	-0.6197888
-1.0818463	mə́ ŋgápzə́	-0.6197888
-0.6147092	mə́ ŋkwé	-0.6197888
-0.1735441	mə́nté mbí	-0.4771213
-0.1735441	mə̂ fə́	-0.4771213
-0.2959505	mɛ̂ ŋwə́	-0.30103
-0.8300343	nà' lá'sə́	-0.3679768
-0.8300343	nà' lá'zə́	-0.3679768
-0.5364709	nà' yá'	-0.3679768
-1.003665	ná' à	-0.4771213
-1.003665	ná' ghwɔ́'	-0.4771213
-1.003665	ná' hɔ́'	-0.4771213
-1.003665	ná' ndúpzə́	-0.4771213
-1.003665	ná' ndɔ́'ɔ́	-0.4771213
-1.003665	ná' shíí	-0.4771213
-1.003665	ná' yà'	-0.4771213
-0.1735441	nák mbə́	-0.4771213
-0.1735441	ndúpzə́ ŋwə́	-0.4771213
-0.1735441	ndyɔ́k </s>	-0.4771213
-0.1735441	ndzə́ </s>	-0.4771213
-0.2959505	ndîzə̀ ŋkwɔ̀'	-0.30103
-0.5919597	ndîzə́ mbɛ̀	-0.30103
-0.5919597	ndîzə́ ŋwə́	-0.30103
-0.1735441	ndɔ́'ɔ́ sak	-0.4771213
-0.1735441	ndə̀p kundyə̂	-0.4771213
-0.1735441	njɔ́kwɨ́p ná'	-0.4771213
-0.1735441	nòpnà' </s>	-0.4771213
-0.4720417	nópnà' ná'	-0.4771213
-0.4720417	nópnà' shí	-0.4771213
-0.1735441	nsó ŋkwɔ̀'	-0.4771213
-0.1735441	nzí ndə̀p	-0.4771213
-0.2959505	nzísə̀ ŋkwɔ̀'	-0.30103
-0.3928605	nzísə́ mbɛ̀	-0.39794
-0.6888697	nzísə́ ŋwə́	-0.39794
-0.2959505	nzízə́ mbɛ̀	-0.30103
-0.1735441	nɔ̂nɔ̀ mə́	-0.4771213
-0.1735441	nɔ̂nɔ́ mbɛ́	-0.4771213
-0.5919597	phú mbyɛ̂	-0.30103
-0.5919597	phú mbɛ́	-0.30103
-0.1735441	pú' ŋkwɨ́	-0.4771213
-0.1735441	pwɔ̀k </s>	-0.4771213
-0.4720417	pɔ̀ kwé	-0.4771213
-0.4720417	pɔ̀ ná'	-0.4771213
-0.5969805	pɔ́ </s>	-0.60206
-0.2984828	pɔ́ shí	-0.60206
-0.4720417	pɔ́njwí pú'	-0.4771213
-0.4720417	pɔ́njwí shí	-0.4771213
-0.0956346	pɔ̌ shí	-0.69897
-0.1735441	sak </s>	-0.4771213
-0.0956346	sák </s>	-0.69897
-1.2056253	shí gháptzə́	-0.5314789
-0.7448945	shí kwé	-0.5314789
-1.2056253	shí lá'zə́	-0.5314789
-1.4831742	shí lɔ́'zə́	-0.5314789
-1.2056253	shí má'zə́	-0.5314789
-1.4831742	shí nzísə́	-0.5314789
-1.4831742	shí nzízə́	-0.5314789
-1.037652	shí yá'	-0.5314789
-1.2056253	shí ŋá'	-0.5314789
-0.9168298	shí ŋkwé	-0.5314789
-0.1735441	shíí miə́ghə̀	-0.4771213
-0.1735441	só â	-0.4771213
-0.1735441	tá' njɔ́kwɨ́p	-0.4771213
-0.1735441	tákə̀ zí	-0.4771213
-0.1735441	wete nák	-0.4771213
-0.1735441	wǔp mə́	-0.4771213
-0.1735441	yà' mbɛ̀	-0.4771213
-0.2481777	yá' mbɛ̀	-0.7269987
-0.8954928	yá' ndyɔ́k	-0.7269987
-0.8954928	yá' nòpnà'	-0.7269987
-0.5919597	yɔ̌ ndîzə̀	-0.30103
-0.5919597	yɔ̌ nzísə̀	-0.30103
-0.1735441	zhúə́só </s>	-0.4771213
-1.2104778	zhɨ́ kwé	-0.6283889
-1.2104778	zhɨ́ mbyɛ̂	-0.6283889
-0.7465681	zhɨ́ mə́	-0.6283889
-1.2104778	zhɨ́ nà'	-0.6283889
-0.6233094	zhɨ́ ná'	-0.6283889
-1.2104778	zhɨ́ nzí	-0.6283889
-1.2104778	zhɨ́ shí	-0.6283889
-1.2104778	zhɨ́ yá'	-0.6283889
-0.1735441	zí pwɔ̀k	-0.4771213
-0.1735441	zə́ sák	-0.4771213
-0.1735441	zɛ́ </s>	-0.4771213
-0.1735441	â ndzə́	-0.4771213
-0.1735441	ŋá' ŋwə́	-0.4771213
-0.1735441	ŋáŋú kwé	-0.4771213
-0.1735441	ŋgápzə́ ŋwə́	-0.4771213
-0.5702161	ŋkwé </s>	-0.69897
-0.8674641	ŋkwé cə́tɔ̀	-0.69897
-0.3953928	ŋkwé mbɛ̀	-0.69897
-0.4720417	ŋkwɔ̀' </s>	-0.4771213
-0.4720417	ŋkwɔ̀' mə́nté	-0.4771213
-0.1735441	ŋkwɨ́ </s>	-0.4771213
-0.1735441	ŋkətú' kwé	-0.4771213
-0.1735441	ŋkə̀tú' mə́	-0.4771213
-0.1735441	ŋkɛ́ </s>	-0.4771213
-0.4739884	ŋwə́ </s>	-0.6879746
-1.2700635	ŋwə́ fə́k	-0.6879746
-1.2700635	ŋwə́ lá'zə́	-0.6879746
-0.9789043	ŋwə́ mə́	-0.6879746
-1.2700635	ŋwə́ nà'	-0.6879746
-0.9789043	ŋwə́ shí	-0.6879746
-1.2700635	ŋwə́ yɔ̌	-0.6879746
-1.2700635	ŋwə́ zə́	-0.6879746

\3-grams:
-0.0025635	</s> <s> <s>
-1.4165594	<s> <s> cə́tɔ̌
-1.7148417	<s> <s> fɔ̀
-1.4165594	<s> <s> fɔ̌
-1.7148417	<s> <s> mbə́
-1.7148417	<s> <s> mə̂
-2.0104281	<s> <s> mɛ̂
-1.4165594	<s> <s> nópnà'
-1.7148417	<s> <s> nɔ̂nɔ̀
-1.7148417	<s> <s> nɔ̂nɔ́
-1.7148417	<s> <s> phú
-1.4165594	<s> <s> pɔ̀
-1.4165594	<s> <s> pɔ́
-1.4165594	<s> <s> pɔ́njwí
-1.7148417	<s> <s> pɔ̌
-1.7148417	<s> <s> tá'
-1.7148417	<s> <s> wete
-1.7148417	<s> <s> wǔp
-0.6059846	<s> <s> zhɨ́
-1.7148417	<s> <s> ŋáŋú
-1.7148417	<s> <s> ŋkətú'
-1.7148417	<s> <s> ŋkə̀tú'
-0.7902834	<s> <s> ŋwə́
-0.0175159	<s> cə́tɔ̌ shí
-0.5194858	<s> fɔ̀ ndîzə́
-0.5194858	<s> fɔ̀ nzísə́
-0.6856218	<s> fɔ̌ mə́
-0.6856218	<s> fɔ̌ nzísə́
-0.3868729	<s> fɔ̌ shí
-0.1084152	<s> mbə́ tákə̀
-0.0505143	<s> mə̂ fə́
-0.123239	<s> mɛ̂ ŋwə́
-0.3509071	<s> nópnà' ná'
-0.3509071	<s> nópnà' shí
-0.0505143	<s> nɔ̂nɔ̀ mə́
-0.0505143	<s> nɔ̂nɔ́ mbɛ́
-0.4225758	<s> phú mbyɛ̂
-0.4225758	<s> phú mbɛ́
-0.3509071	<s> pɔ̀ kwé
-0.3509071	<s> pɔ̀ ná'
-0.0454737	<s> pɔ́ shí
-0.3509071	<s> pɔ́njwí pú'
-0.3509071	<s> pɔ́njwí shí
-0.0295984	<s> pɔ̌ shí
-0.0505143	<s> tá' njɔ́kwɨ́p
-0.0505143	<s> wete nák
-0.0505143	<s> wǔp mə́
-1.1348031	<s> zhɨ́ kwé
-1.1348031	<s> zhɨ́ mbyɛ̂
-0.6602616	<s> zhɨ́ mə́
-1.1348031	<s> zhɨ́ nà'
-0.5356464	<s> zhɨ́ ná'
-1.1348031	<s> zhɨ́ nzí
-1.1348031	<s> zhɨ́ shí
-1.1348031	<s> zhɨ́ yá'
-0.0505143	<s> ŋáŋú kwé
-0.0505143	<s> ŋkətú' kwé
-0.0505143	<s> ŋkə̀tú' mə́
-1.0043891	<s> ŋwə́ fə́k
-1.0043891	<s> ŋwə́ lá'zə́
-0.7049058	<s> ŋwə́ mə́
-1.0043891	<s> ŋwə́ nà'
-0.8079391	<s> ŋwə́ shí
-1.0043891	<s> ŋwə́ yɔ̌
-1.0043891	<s> ŋwə́ zə́
-0.0015246	à </s> <s>
-0.121283	à ŋkwé </s>
-0.0015246	cə́tɔ̀ </s> <s>
-0.4052647	cə́tɔ̌ shí kwé
-0.4274741	cə́tɔ̌ shí ŋkwé
-0.0015246	fɔ̀ </s> <s>
-0.1084152	fɔ̀ à </s>
-0.202081	fɔ̀ ndîzə́ mbɛ̀
-0.1534446	fɔ̀ nzísə́ mbɛ̀
-0.2828192	fɔ̌ mə́ ndîzə́
-0.220149	fɔ̌ nzísə́ ŋwə́
-0.5744071	fɔ̌ shí nzísə́
-0.5744071	fɔ̌ shí nzízə́
-0.1584688	fə́ mə́ só
-0.0295984	fə́k sák </s>
-0.1086955	gháptzə́ ŋwə́ </s>
-0.0505143	ghwɔ́' zhúə́só </s>
-0.1084152	hɔ́' lá' pɔ́
-0.0505143	kundyə̂ zɛ́ </s>
-0.0015246	kwé </s> <s>
-0.001028	kwé mbɛ̀ </s>
-0.1086955	kwé ŋwə́ </s>
-0.0015246	lá' </s> <s>
-0.1243714	lá' pɔ́ </s>
-0.0056842	lá'sə́ mbɛ̀ </s>
-0.0018865	lá'zə́ mbɛ̀ </s>
-0.1753059	lɔ́'zə́ ŋwə́ </s>
-0.0505143	má'zə́ ŋkɛ́ </s>
-0.1337706	mbí fɔ̀ à
-0.1337706	mbyɛ̂ fɔ̀ </s>
-0.0781606	mbyɛ̂ mcwɔ̀k </s>
-0.0295984	mbə́ pɔ̌ shí
-0.0505143	mbə́ tákə̀ zí
-0.0001202	mbɛ̀ </s> <s>
-0.1084152	mbɛ́ lá' </s>
-0.0781606	mbɛ́ mcwɔ̀k </s>
-0.0015246	mcwɔ̀k </s> <s>
-0.0015246	miə́ghə̀ </s> <s>
-0.202081	mə́ ndîzə́ ŋwə́
-0.0505143	mə́ nsó ŋkwɔ̀'
-0.0505143	mə́ só â
-0.3867318	mə́ yá' mbɛ̀
-0.5773705	mə́ yá' ndyɔ́k
-0.5773705	mə́ yá' nòpnà'
-0.0505143	mə́ ŋgápzə́ ŋwə́
-0.505991	mə́ ŋkwé </s>
-0.5727558	mə́ ŋkwé cə́tɔ̀
-0.4481356	mə́ ŋkwé mbɛ̀
-0.0505143	mə́nté mbí fɔ̀
-0.0505143	mə̂ fə́ mə́
-0.2576766	mɛ̂ ŋwə́ shí
-0.123239	nà' lá'sə́ mbɛ̀
-0.0373243	nà' lá'zə́ mbɛ̀
-0.0680837	nà' yá' mbɛ̀
-0.1084152	ná' à ŋkwé
-0.0505143	ná' ghwɔ́' zhúə́só
-0.0505143	ná' hɔ́' lá'
-0.0505143	ná' ndúpzə́ ŋwə́
-0.0505143	ná' ndɔ́'ɔ́ sak
-0.0505143	ná' shíí miə́ghə̀
-0.0505143	ná' yà' mbɛ̀
-0.1084152	nák mbə́ pɔ̌
-0.1086955	ndúpzə́ ŋwə́ </s>
-0.0015246	ndyɔ́k </s> <s>
-0.0015246	ndzə́ </s> <s>
-0.1748158	ndîzə̀ ŋkwɔ̀' mə́nté
-0.0056842	ndîzə́ mbɛ̀ </s>
-0.1753059	ndîzə́ ŋwə́ </s>
-0.0505143	ndɔ́'ɔ́ sak </s>
-0.0505143	ndə̀p kundyə̂ zɛ́
-0.1550758	njɔ́kwɨ́p ná' hɔ́'
-0.0015246	nòpnà' </s> <s>
-0.1550758	nópnà' ná' à
-0.1386785	nópnà' shí kwé
-0.1084152	nsó ŋkwɔ̀' </s>
-0.0505143	nzí ndə̀p kundyə̂
-0.1748158	nzísə̀ ŋkwɔ̀' mə́nté
-0.0037812	nzísə́ mbɛ̀ </s>
-0.1753059	nzísə́ ŋwə́ </s>
-0.0056842	nzízə́ mbɛ̀ </s>
-0.1584688	nɔ̂nɔ̀ mə́ nsó
-0.0960593	nɔ̂nɔ́ mbɛ́ lá'
-0.220149	phú mbyɛ̂ mcwɔ̀k
-0.220149	phú mbɛ́ mcwɔ̀k
-0.0505143	pú' ŋkwɨ́ </s>
-0.0015246	pwɔ̀k </s> <s>
-0.0637693	pɔ̀ kwé mbɛ̀
-0.1550758	pɔ̀ ná' yà'
-0.0015246	pɔ́ </s> <s>
-0.4508807	pɔ́ shí má'zə́
-0.4508807	pɔ́ shí ŋá'
-0.0505143	pɔ́njwí pú' ŋkwɨ́
-0.1627728	pɔ́njwí shí gháptzə́
-0.4052647	pɔ̌ shí kwé
-0.4274741	pɔ̌ shí ŋkwé
-0.0015246	sak </s> <s>
-0.0009141	sák </s> <s>
-0.0505143	shí gháptzə́ ŋwə́
-0.5529493	shí kwé </s>
-0.188708	shí kwé mbɛ̀
-0.0245231	shí lá'zə́ mbɛ̀
-0.123239	shí lɔ́'zə́ ŋwə́
-0.0505143	shí má'zə́ ŋkɛ́
-0.1534446	shí nzísə́ mbɛ̀
-0.123239	shí nzízə́ mbɛ̀
-0.0500363	shí yá' mbɛ̀
-0.0505143	shí ŋá' ŋwə́
-0.0552851	shí ŋkwé mbɛ̀
-0.0505143	shíí miə́ghə̀ </s>
-0.0505143	só â ndzə́
-0.0505143	tá' njɔ́kwɨ́p ná'
-0.0505143	tákə̀ zí pwɔ̀k
-0.0505143	wete nák mbə́
-0.1584688	wǔp mə́ ŋgápzə́
-0.0037812	yà' mbɛ̀ </s>
-0.0011309	yá' mbɛ̀ </s>
-0.0505143	yá' ndyɔ́k </s>
-0.0505143	yá' nòpnà' </s>
-0.123239	yɔ̌ ndîzə̀ ŋkwɔ̀'
-0.123239	yɔ̌ nzísə̀ ŋkwɔ̀'
-0.0015246	zhúə́só </s> <s>
-0.0637693	zhɨ́ kwé mbɛ̀
-0.0960593	zhɨ́ mbyɛ̂ fɔ̀
-0.5076505	zhɨ́ mə́ yá'
-0.2512649	zhɨ́ mə́ ŋkwé
-0.1171424	zhɨ́ nà' yá'
-0.6995787	zhɨ́ ná' ghwɔ́'
-0.6995787	zhɨ́ ná' ndúpzə́
-0.6995787	zhɨ́ ná' ndɔ́'ɔ́
-0.6995787	zhɨ́ ná' shíí
-0.0505143	zhɨ́ nzí ndə̀p
-0.1566228	zhɨ́ shí yá'
-0.0680837	zhɨ́ yá' mbɛ̀
-0.0505143	zí pwɔ̀k </s>
-0.0295984	zə́ sák </s>
-0.0015246	zɛ́ </s> <s>
-0.0505143	â ndzə́ </s>
-0.1086955	ŋá' ŋwə́ </s>
-0.1508421	ŋáŋú kwé ŋwə́
-0.1086955	ŋgápzə́ ŋwə́ </s>
-0.0009141	ŋkwé </s> <s>
-0.0505143	ŋkwé cə́tɔ̀ </s>
-0.0016165	ŋkwé mbɛ̀ </s>
-0.0015246	ŋkwɔ̀' </s> <s>
-0.0505143	ŋkwɔ̀' mə́nté mbí
-0.0015246	ŋkwɨ́ </s> <s>
-0.0637693	ŋkətú' kwé mbɛ̀
-0.1263262	ŋkə̀tú' mə́ yá'
-0.0015246	ŋkɛ́ </s> <s>
-0.0003514	ŋwə́ </s> <s>
-0.0505143	ŋwə́ fə́k sák
-0.0245231	ŋwə́ lá'zə́ mbɛ̀
-0.3827118	ŋwə́ mə́ yá'
-0.3827118	ŋwə́ mə́ ŋkwé
-0.4895226	ŋwə́ nà' lá'sə́
-0.4895226	ŋwə́ nà' lá'zə́
-0.5052788	ŋwə́ shí lá'zə́
-0.8042522	ŋwə́ shí lɔ́'zə́
-0.7395584	ŋwə́ shí yá'
-0.4225758	ŋwə́ yɔ̌ ndîzə̀
-0.4225758	ŋwə́ yɔ̌ nzísə̀
-0.0505143	ŋwə́ zə́ sák

\end\